epoch,weight,截距bias,loss
0,-1.2840330310809736,0.0,0.3326125317515817
1,-1.3004286484996017,-0.009489285537388484,0.3290510856742642
2,-1.3164391563325017,-0.018703685836624802,0.3256300001602196
3,-1.3320806239129928,-0.027655888544101385,0.3223409304083573
4,-1.3473681811040406,-0.03635780973161333,0.3191761716788765
5,-1.3623160869967588,-0.044820650513795635,0.31612860056246533
6,-1.3769377927518192,-0.05305494893454248,0.3131916224064092
7,-1.3912459991359685,-0.06107062755048757,0.3103591241839029
8,-1.405252709251188,-0.06887703710018672,0.3076254321819233
9,-1.418969276904642,-0.07648299661148097,0.30498527396042935
10,-1.4324064510230363,-0.08389683026649253,0.3024337441029551
11,-1.4455744164749256,-0.09112640131364295,0.2999662733372033
12,-1.4584828316284923,-0.09817914328878342,0.29757860065521335
13,-1.4711408629399698,-0.10506208878278665,0.2952667481070727
14,-1.483557216838842,-0.1117818959705615,0.2930269979808598
15,-1.4957401691499157,-0.11834487309621292,0.2908558721152983
16,-1.5076975922689855,-0.1247570010907914,0.2887501131211316
17,-1.5194369802878585,-0.13102395448257484,0.28670666731305894
18,-1.5309654722456991,-0.13715112074493582,0.28472266917669214
19,-1.5422898736667772,-0.14314361821341176,0.2827954272148292
20,-1.553416676529555,-0.14900631269147407,0.2809224110347529
21,-1.5643520777984368,-0.15474383285355345,0.27910123955356336
22,-1.5751019966372781,-0.16036058454400653,0.2773296702120271
23,-1.5856720904127508,-0.16586076406179517,0.27560558909928606
24,-1.5960677695857657,-0.17124837051259945,0.27392700190124575
25,-1.6062942115802439,-0.17652721730281046,0.27229202559470445
26,-1.6163563737104982,-0.18170094284327287,0.27069888081747207
27,-1.6262590052412411,-0.18677302052469708,0.2691458848519644
28,-1.6360066586477051,-0.19174676802127708,0.2676314451661859
29,-1.6456037001374537,-0.19662535597417294,0.2661540534617163
30,-1.6550543194901273,-0.2014118161020972,0.26471228018338183
31,-1.664362539266536,-0.20610904878223638,0.2633047694498069
32,-1.6735322234341454,-0.2107198301411014,0.26193023436805685
33,-1.6825670854520307,-0.2152468186915977,0.2605874526991716
34,-1.691470695854786,-0.21969256154960315,0.2592752628445906
35,-1.7002464893716125,-0.2240595002606121,0.2579925601263326
36,-1.7088977716138376,-0.22834997626451883,0.2567382933363581
37,-1.7174277253614305,-0.23256623602435003,0.25551146153284027
38,-1.7258394164766162,-0.23671043584269358,0.2543111110631298
39,-1.7341357994704614,-0.24078464638768823,0.2531363327950523
40,-1.7423197227462615,-0.24479085694872196,0.25198625953984094
41,-1.7503939335417027,-0.24873097944041664,0.25086006365150726
42,-1.7583610825900713,-0.2526068521720427,0.24975695478880017
43,-1.766223728519232,-0.2564202433981947,0.2486761778271272
44,-1.7739843420056736,-0.2601728546653569,0.2476170109089066
45,-1.7816453096996254,-0.2638663239678873,0.24657876362181702
46,-1.7892089379360492,-0.2675022287259392,0.24556077529530898
47,-1.7966774562452268,-0.2710820885969126,0.24456241340656062
48,-1.8040530206756549,-0.27460736813117737,0.24358307208779473
49,-1.8113377169410407,-0.2780794792820302,0.2426221707275483
50,-1.8185335634023467,-0.2814997837791259,0.24167915265909282
51,-1.8256425138950507,-0.2848695953739654,0.2407534839297581
52,-1.8326664604110752,-0.2881901819654127,0.23984465214541517
53,-1.8396072356441775,-0.29146276761265183,0.238952165384835
54,-1.8464666154069846,-0.29468853444247883,0.23807555117905516
55,-1.853246320927294,-0.29786862445734574,0.23721435555126993
56,-1.8599480210307455,-0.3010041412501337,0.2363681421131083
57,-1.8665733342164907,-0.30409615163122505,0.23553649121348155
58,-1.8731238306320404,-0.30714568717306856,0.23471899913647382
59,-1.8796010339530655,-0.3101537456770831,0.23391527734501638
60,-1.8860064231735458,-0.3131212925674245,0.2331249517673303
61,-1.892341434311309,-0.3160492622158405,0.23234766212334623
62,-1.8986074620336797,-0.3189385592015637,0.23158306128851444
63,-1.904805861207653,-0.32179005950993506,0.23083081469261044
64,-1.9109379483787305,-0.32460461167321325,0.23009059975130985
65,-1.917005003182293,-0.3273830378568048,0.22936210532847165
66,-1.9230082696911444,-0.3301261348939438,0.22864503122720964
67,-1.9289489577026386,-0.33283467527166066,0.2279390877079724
68,-1.9348282439685847,-0.335509408070701,0.22724399503197396
69,-1.9406472733709408,-0.33815105986189203,0.22655948302843193
70,-1.946407160046117,-0.34076033556129903,0.2258852906841787
71,-1.9521089884605445,-0.34333791924637286,0.22522116575430545
72,-1.957753814440007,-0.34588447493515456,0.22456686439259257
73,-1.9633426661550848,-0.34840064733048076,0.2239221508005625
74,-1.968876545064924,-0.35088706253101576,0.2232867968940678
75,-1.9743564268214153,-0.35334432871082916,0.22266058198640057
76,-1.9797832621357485,-0.3557730367691367,0.2220432924869736
77,-1.9851579776091908,-0.35817376095172687,0.22143472161468924
78,-1.9904814765298402,-0.36054705944550824,0.22083466912516259
79,-1.9957546396370025,-0.36289347494752966,0.22024294105102676
80,-2.000978325854746,-0.3652135352097481,0.21965934945459034
81,-2.006153372996109,-0.3675077535607465,0.21908371219216635
82,-2.0112805984393454,-0.3697766294055369,0.2185158526894347
83,-2.016360799777528,-0.3720206487045196,0.21795559972723835
84,-2.021394755442747,-0.37424028443261015,0.21740278723725087
85,-2.026383225306085,-0.3764359970194903,0.21685725410698814
86,-2.0313269512544756,-0.3786082347718865,0.21631884399366771
87,-2.036226657745509,-0.38075743427872943,0.21578740514645048
88,-2.041083052341173,-0.3828840208000044,0.21526279023662503
89,-2.045896826221487,-0.3849884086400553,0.214744856195325
90,-2.0506686546789177,-0.3870710015060677,0.21423346405838908
91,-2.0553991975944332,-0.38913219285241596,0.21372847881799953
92,-2.0600890998960026,-0.3911723662115236,0.2132297692807553
93,-2.0647389920003074,-0.39319189551185346,0.21273720793185524
94,-2.0693494902383947,-0.3951911453836099,0.2122506708050857
95,-2.07392119726596,-0.3971704714527076,0.21177003735832436
96,-2.0784547024589237,-0.39913022062353165,0.21129519035428826
97,-2.082950582294921,-0.40107073135098664,0.21082601574626905
98,-2.0874094007213,-0.40299233390230876,0.21036240256861327
99,-2.0918317095101995,-0.4048953506090898,0.2099042428317183
100,-2.096218048601233,-0.4067800961099397,0.2094514314213271
101,-2.1005689464323067,-0.4086468775841934,0.20900386600191814
102,-2.1048849202590434,-0.41049599497704786,0.20856144692399572
103,-2.1091664764632885,-0.41232774121649546,0.20812407713509778
104,-2.113414110851137,-0.41414240242240286,0.207691662094348
105,-2.1176283089409007,-0.4159402581080673,0.20726410969038717
106,-2.1218095462414244,-0.41772158137456594,0.20684133016253012
107,-2.125958288521128,-0.4194866390981996,0.20642323602499796
108,-2.1300749920681468,-0.42123569211131656,0.20600974199408834
109,-2.1341601039419147,-0.42296899537679006,0.20560076491814944
110,-2.138214062216528,-0.4246867981564095,0.2051962237102337
111,-2.1422372962162055,-0.4263893441734327,0.20479603928330964
112,-2.1462302267431506,-0.4280768717695369,0.20440013448792085
113,-2.1501932662981056,-0.42974961405639217,0.20400843405218277
114,-2.1541268192938774,-0.4314077990620743,0.2036208645240168
115,-2.1580312822620993,-0.4330516498725214,0.20323735421552197
116,-2.1619070440534833,-0.4346813847682301,0.20285783314939523
117,-2.1657544860318048,-0.4362972173563793,0.20248223300731033
118,-2.169573982261857,-0.4378993566985598,0.2021104870801714
119,-2.1733658996915897,-0.43948800743428046,0.2017425302201643
120,-2.177130598328655,-0.44106336990041445,0.20137829879452757
121,-2.180868431411555,-0.4426256402467412,0.20101773064097225
122,-2.1845797455755944,-0.444175010547734,0.20066076502468205
123,-2.1882648810138203,-0.44571166891073477,0.20030734259682773
124,-2.1919241716331324,-0.4472357995806536,0.19995740535453493
125,-2.1955579452057314,-0.4487475830413231,0.19961089660224435
126,-2.199166523516077,-0.4502471961136324,0.19926776091440904
127,-2.202750222503506,-0.45173481205056093,0.19892794409947465
128,-2.2063093524006674,-0.45321060062922636,0.1985913931650906
129,-2.209844217867923,-0.4546747282400563,0.1982580562845035
130,-2.213355118123843,-0.4561273579731889,0.19792788276408602
131,-2.2168423470719407,-0.45756864970220357,0.19760082301195642
132,-2.2203061934237724,-0.45899876016527785,0.1972768285076457
133,-2.223746940818524,-0.460417843043863,0.19695585177277167
134,-2.227164867939204,-0.4618260490389678,0.19663784634268136
135,-2.2305602486255607,-0.4632235259451345,0.1963227667390236
136,-2.2339333519838274,-0.46461041872219,0.1960105684432173
137,-2.2372844424934066,-0.46598686956484925,0.19570120787077996
138,-2.240613780110592,-0.46735301797024736,0.19539464234648485
139,-2.2439216203694246,-0.46870900080347166,0.1950908300803153
140,-2.2472082144797825,-0.4700549523611634,0.19478973014418619
141,-2.2504738094227856,-0.4713910044332561,0.19449130244940413
142,-2.253718648043611,-0.47271728636291366,0.19419550772483857
143,-2.256942969141798,-0.4740339251047303,0.1939023074957788
144,-2.260147007559124,-0.47534104528125126,0.1936116640634498
145,-2.2633309942651287,-0.476638769237871,0.19332354048516492
146,-2.266495156440363,-0.4779272170961633,0.19303790055509099
147,-2.2696397175574314,-0.479206506805696,0.19275470878560402
148,-2.2727648974599015,-0.4804767541943806,0.19247393038921484
149,-2.2758709124391414,-0.4817380730174054,0.1921955312610434
150,-2.278957975309157,-0.4829905750047991,0.1919194779618233
151,-2.2820262954794845,-0.484234369907669,0.191645737701417
152,-2.285076079026201,-0.4854695655431582,0.1913742783228239
153,-2.2881075287611097,-0.48669626783816233,0.1911050682866649
154,-2.2911208442991593,-0.48791458087184686,0.1908380766561253
155,-2.294116222124145,-0.48912460691700266,0.19057327308234182
156,-2.297093855652747,-0.4903264464802779,0.1903106277902174
157,-2.300053935296956,-0.4915201983413215,0.19005011156464935
158,-2.3029966485249327,-0.4927059595908728,0.18979169573715693
159,-2.30592217992035,-0.49388382566783096,0.18953535217289502
160,-2.3088307112402604,-0.49505389039533554,0.1892810532580401
161,-2.3117224214715337,-0.49621624601589004,0.189028771887537
162,-2.3145974868859067,-0.49737098322555756,0.18877848145319323
163,-2.3174560810936846,-0.49851819120725727,0.188530155832111
164,-2.320298375096135,-0.49965795766319004,0.18828376937544378
165,-2.32312453733661,-0.5007903688464193,0.18803929689746815
166,-2.3259347337504357,-0.5019155095916331,0.18779671366496026
167,-2.3287291278136015,-0.503033463345113,0.18755599538686665
168,-2.3315078805902862,-0.5041443121939324,0.18731711820426009
169,-2.334271150779252,-0.5052481368944088,0.18708005868057143
170,-2.337019094759139,-0.506345016899832,0.1868447937920883
171,-2.3397518666326915,-0.507435030387489,0.18661130091871236
172,-2.3424696182699467,-0.5085182542850086,0.1863795578349665
173,-2.345172499350411,-0.5095947642960431,0.18614954270124456
174,-2.3478606574042584,-0.5106646349253092,0.18592123405529565
175,-2.3505342378525707,-0.5117279395030052,0.18569461080393582
176,-2.353193384046653,-0.5127847502086232,0.18546965221497944
177,-2.355838237306443,-0.5138351380941744,0.18524633790938466
178,-2.358468936958046,-0.5148791731068435,0.18502464785360523
179,-2.361085620370412,-0.5159169241110904,0.18480456235214232
180,-2.363688422991183,-0.5169484589102119,0.1845860620402913
181,-2.366277478381732,-0.5179738442673832,0.1843691278770762
182,-2.368852918251415,-0.5189931459261898,0.18415374113836713
183,-2.3714148724910533,-0.5200064286306669,0.18393988341017448
184,-2.373963469205676,-0.5210137561448596,0.18372753658211513
185,-2.3764988347465312,-0.5220151912719164,0.18351668284104464
186,-2.3790210937423937,-0.5230107958727307,0.1833073046648518
187,-2.38153036913018,-0.5240006308841412,0.1830993848164096
188,-2.3840267821848977,-0.5249847563367047,0.18289290633767818
189,-2.386510452548939,-0.525963231372053,0.18268785254395586
190,-2.388981498260739,-0.526936114259844,0.18248420701827295
191,-2.391440035782814,-0.5279034624143201,0.1822819536059253
192,-2.393886180029194,-0.5288653324104832,0.1820810764091428
193,-2.396320044392272,-0.5298217799998974,0.18188155978188886
194,-2.3987417407690743,-0.530772860126129,0.18168338832478742
195,-2.401151379586976,-0.5317186269398337,0.18148654688017357
196,-2.403549069828869,-0.5326591338135013,0.18129102052726503
197,-2.405934919057799,-0.5335944333558655,0.18109679457744982
198,-2.4083090334410886,-0.5345245774259894,0.1809038545696872
199,-2.4106715177739515,-0.5354496171470333,0.18071218626601962
200,-2.413022475502615,-0.536369602919716,0.18052177564719157
201,-2.415362008746964,-0.5372845844354744,0.1803326089083724
202,-2.4176902183227167,-0.5381946106893323,0.18014467245498061
203,-2.4200072037631415,-0.5390997299924835,0.17995795289860675
204,-2.42231306334033,-0.5399999899845984,0.17977243705303178
205,-2.4246078940860345,-0.540895437645861,0.1795881119303388
206,-2.4268917918120843,-0.5417861193087417,0.17940496473711529
207,-2.429164851130382,-0.5426720806695148,0.17922298287074342
208,-2.4314271654725013,-0.5435533667995263,0.1790421539157759
209,-2.433678827108889,-0.5444300221562177,0.17886246564039562
210,-2.435919927167681,-0.5453020905939137,0.1786839059929559
211,-2.4381505556531433,-0.5461696153743772,0.1785064630986004
212,-2.4403708014637466,-0.5470326391771412,0.17833012525595893
213,-2.4425807524098833,-0.5478912041096184,0.178154880933919
214,-2.444780495231233,-0.5487453517169992,0.17798071876846955
215,-2.446970115613788,-0.5495951229919389,0.1778076275596156
216,-2.449149698206545,-0.5504405583840425,0.17763559626836273
217,-2.45131932663787,-0.5512816978091503,0.1774646140137672
218,-2.4534790835315476,-0.5521185806584298,0.1772946700700534
219,-2.4556290505225165,-0.5529512458072791,0.17712575386379328
220,-2.4577693082723022,-0.5537797316240453,0.17695785497114924
221,-2.4598999364841547,-0.5546040759785638,0.17679096311517678
222,-2.462021013917893,-0.5554243162505214,0.1766250681631864
223,-2.46413261840447,-0.5562404893376486,0.17646016012416255
224,-2.4662348268602567,-0.5570526316637447,0.1762962291462391
225,-2.4683277153010588,-0.5578607791865402,0.1761332655142289
226,-2.4704113588558663,-0.5586649674053988,0.17597125964720667
227,-2.4724858317803466,-0.5594652313688656,0.17581020209614373
228,-2.474551207470083,-0.5602616056820624,0.175650083541593
229,-2.4766075584735656,-0.5610541245139354,0.17549089479142393
230,-2.4786549565049434,-0.5618428216043584,0.17533262677860464
231,-2.4806934724565366,-0.5626277302710943,0.17517527055903093
232,-2.4827231764111195,-0.5634088834166188,0.17501881730940175
233,-2.4847441376539763,-0.5641863135348101,0.17486325832513852
234,-2.486756424684736,-0.5649600527175062,0.17470858501834818
235,-2.4887601052289914,-0.5657301326609335,0.17455478891582824
236,-2.490755246249707,-0.5664965846720112,0.17440186165711355
237,-2.492741913958416,-0.5672594396745314,0.1742497949925637
238,-2.4947201738262215,-0.5680187282152203,0.17409858078148893
239,-2.496690090594592,-0.5687744804696823,0.1739482109903147
240,-2.498651728285967,-0.569526726248229,0.1737986776907851
241,-2.5006051502141733,-0.5702754950015972,0.17364997305820026
242,-2.502550418994653,-0.5710208158265568,0.17350208936969216
243,-2.504487596554511,-0.5717627174714124,0.17335501900253333
244,-2.506416744142383,-0.5725012283413998,0.17320875443248057
245,-2.5083379223381326,-0.5732363765039815,0.1730632882321518
246,-2.5102511910623724,-0.5739681896940408,0.17291861306943512
247,-2.512156609585823,-0.5746966953189798,0.17277472170592972
248,-2.5140542365385063,-0.5754219204637206,0.17263160699541777
249,-2.5159441299187773,-0.5761438918956143,0.17248926188236624
250,-2.5178263471022007,-0.5768626360692578,0.17234767940045895
251,-2.5197009448502743,-0.5775781791312219,0.17220685267115649
252,-2.5215679793190007,-0.5782905469246916,0.17206677490228506
253,-2.52342750606731,-0.5789997649940212,0.17192743938665295
254,-2.5252795800653436,-0.5797058585892056,0.17178883950069287
255,-2.5271242557025886,-0.5804088526702705,0.17165096870313207
256,-2.5289615867958806,-0.5811087719115812,0.17151382053368652
257,-2.5307916265972676,-0.5818056407060744,0.17137738861178214
258,-2.532614427801741,-0.5824994831694129,0.1712416666352982
259,-2.5344300425548347,-0.5831903231440653,0.17110664837933728
260,-2.5362385224601014,-0.5838781842033118,0.17097232769501633
261,-2.538039918586457,-0.5845630896551796,0.17083869850828254
262,-2.5398342814754082,-0.5852450625463059,0.17070575481875
263,-2.5416216611481555,-0.5859241256657343,0.17057349069855998
264,-2.5434021071125805,-0.5866003015486416,0.17044190029126094
265,-2.5451756683701174,-0.5872736124800009,0.17031097781071086
266,-2.546942393422511,-0.5879440804981778,0.17018071753999928
267,-2.548702330278463,-0.5886117273984652,0.17005111383038957
268,-2.550455526460169,-0.5892765747365551,0.1699221611002811
269,-2.552202029009752,-0.58993864383195,0.16979385383419027
270,-2.5539418844955857,-0.5905979557713149,0.1696661865817502
271,-2.55567513901852,-0.5912545314117713,0.16953915395672942
272,-2.5574018382180035,-0.5919083913841339,0.16941275063606762
273,-2.559122027278107,-0.5925595560960915,0.16928697135892984
274,-2.5608357509334496,-0.5932080457353333,0.16916181092577726
275,-2.562543053475034,-0.5938538802726216,0.1690372641974552
276,-2.564243978755982,-0.5944970794648121,0.16891332609429713
277,-2.5659385701971824,-0.5951376628578221,0.16878999159524588
278,-2.5676268707928505,-0.5957756497895492,0.16866725573698893
279,-2.569308923115995,-0.5964110593927402,0.16854511361311061
280,-2.5709847693238035,-0.5970439105978113,0.1684235603732592
281,-2.5726544511629386,-0.5976742221356212,0.16830259122232788
282,-2.574318009974755,-0.5983020125401975,0.1681822014196515
283,-2.575975486700432,-0.598927300151418,0.16806238627821676
284,-2.5776269218860266,-0.5995501031176461,0.16794314116388628
285,-2.5792723556874493,-0.6001704393983238,0.16782446149463656
286,-2.5809118278753607,-0.6007883267665208,0.1677063427398096
287,-2.582545377839994,-0.601403782811442,0.1675887804193765
288,-2.5841730445959024,-0.6020168249408934,0.167471770103215
289,-2.585794866786633,-0.6026274703837073,0.16735530741039906
290,-2.5874108826893307,-0.6032357361921289,0.1672393880085007
291,-2.589021130219269,-0.6038416392441622,0.1671240076129038
292,-2.5906256469343147,-0.6044451962458793,0.1670091619861301
293,-2.592224470039323,-0.6050464237336916,0.1668948469371763
294,-2.593817636390466,-0.6056453380765836,0.1667810583208625
295,-2.5954051824994973,-0.6062419554783124,0.16666779203719226
296,-2.5969871445379495,-0.6068362919795697,0.1665550440307228
297,-2.598563558341272,-0.607428363460111,0.16644281028994637
298,-2.6001344594129034,-0.6080181856408496,0.1663310868466817
299,-2.6016998829282874,-0.6086057740859177,0.16621986977547631
300,-2.6032598637388236,-0.6091911442046943,0.16610915519301775
301,-2.604814436375764,-0.6097743112538021,0.165998939257556
302,-2.60636363505405,-0.6103552903390711,0.16588921816833427
303,-2.6079074936760924,-0.6109340964174729,0.1657799881650302
304,-2.6094460458354956,-0.6115107442990236,0.16567124552720588
305,-2.6109793248207285,-0.6120852486486574,0.16556298657376706
306,-2.6125073636187417,-0.6126576239880707,0.16545520766243088
307,-2.614030194918529,-0.6132278846975373,0.1653479051892032
308,-2.6155478511146404,-0.6137960450176962,0.16524107558786363
309,-2.617060364310642,-0.6143621190513107,0.16513471532945967
310,-2.6185677663225273,-0.6149261207650009,0.1650288209218083
311,-2.620070088682077,-0.6154880639909496,0.16492338890900646
312,-2.6215673626401736,-0.6160479624285818,0.16481841587094906
313,-2.623059619170065,-0.6166058296462186,0.1647138984228546
314,-2.6245468889705843,-0.6171616790827054,0.1646098332147988
315,-2.6260292024693213,-0.6177155240490161,0.16450621693125572
316,-2.6275065898257495,-0.6182673777298325,0.16440304629064548
317,-2.6289790809343105,-0.6188172531850998,0.1643003180448906
318,-2.6304467054274516,-0.6193651633515584,0.16419802897897784
319,-2.631909492678623,-0.6199111210442534,0.1640961759105281
320,-2.6333674718052307,-0.6204551389580204,0.1639947556893727
321,-2.63482067167155,-0.6209972296689501,0.16389376519713644
322,-2.6362691208915967,-0.6215374056358299,0.16379320134682682
323,-2.6377128478319585,-0.6220756792015655,0.16369306108243076
324,-2.639151880614587,-0.6226120625945796,0.16359334137851614
325,-2.6405862471195514,-0.6231465679301915,0.16349403923984102
326,-2.6420159749877525,-0.6236792072119757,0.16339515170096783
327,-2.6434410916236013,-0.6242099923330998,0.16329667582588409
328,-2.644861624197658,-0.6247389350776443,0.16319860870762912
329,-2.646277599649238,-0.6252660471219014,0.16310094746792594
330,-2.647689044688978,-0.6257913400356561,0.1630036892568193
331,-2.649095985801372,-0.6263148252834478,0.16290683125231947
332,-2.650498449247268,-0.6268365142258144,0.16281037066005044
333,-2.6518964610663334,-0.6273564181205175,0.16271430471290496
334,-2.6532900470794853,-0.62787454812375,0.16261863067070365
335,-2.65467923289129,-0.6283909152913274,0.16252334581985967
336,-2.6560640438923278,-0.6289055305798605,0.16242844747304885
337,-2.657444505261528,-0.6294184048479122,0.16233393296888396
338,-2.6588206419684703,-0.6299295488571375,0.16223979967159494
339,-2.6601924787756572,-0.6304389732734069,0.16214604497071292
340,-2.6615600402407553,-0.6309466886679147,0.16205266628075948
341,-2.6629233507188066,-0.6314527055182708,0.16195966104094078
342,-2.6642824343644103,-0.6319570342095772,0.1618670267148457
343,-2.6656373151338757,-0.6324596850354894,0.1617747607901488
344,-2.666988016787348,-0.6329606681992633,0.16168286077831756
345,-2.6683345628909025,-0.6334599938147863,0.16159132421432412
346,-2.669676976818616,-0.6339576719075952,0.1615001486563608
347,-2.671015281754607,-0.6344537124158789,0.16140933168556068
348,-2.67234950069505,-0.6349481251914677,0.16131887090572133
349,-2.6736796564501657,-0.6354409200008089,0.16122876394303304
350,-2.6750057716461826,-0.6359321065259285,0.1611390084458111
351,-2.6763278687272742,-0.6364216943653797,0.1610496020842317
352,-2.6776459699574717,-0.6369096930351786,0.16096054255007192
353,-2.67896009742255,-0.637396111969727,0.16087182755645327
354,-2.680270273031892,-0.6378809605227219,0.16078345483758896
355,-2.681576518520326,-0.6383642479680534,0.160695422148535
356,-2.6828788554499416,-0.6388459835006898,0.16060772726494482
357,-2.6841773052118825,-0.6393261762375511,0.160520367982827
358,-2.685471889028114,-0.6398048352183702,0.16043334211830712
359,-2.6867626279531702,-0.6402819694065427,0.16034664750739255
360,-2.6880495428758784,-0.640757587689965,0.16026028200574066
361,-2.6893326545210616,-0.6412316988818616,0.16017424348843048
362,-2.6906119834512188,-0.6417043117216003,0.16008852984973726
363,-2.691887550068185,-0.6421754348754976,0.16000313900291072
364,-2.69315937461477,-0.6426450769376126,0.15991806887995583
365,-2.694427477176375,-0.6431132464305309,0.1598333174314172
366,-2.695691877682593,-0.6435799518061369,0.15974888262616618
367,-2.696952595908784,-0.6440452014463774,0.1596647624511908
368,-2.6982096514776353,-0.6445090036640141,0.15958095491138907
369,-2.6994630638606982,-0.6449713667033661,0.15949745802936485
370,-2.7007128523799095,-0.6454322987410431,0.1594142698452266
371,-2.7019590362090904,-0.645891807886669,0.15933138841638908
372,-2.7032016343754295,-0.6463499021835953,0.1592488118173772
373,-2.704440665760947,-0.6468065896096059,0.15916653813963363
374,-2.705676149103941,-0.6472618780776125,0.15908456549132788
375,-2.706908103000414,-0.6477157754363405,0.15900289199716883
376,-2.708136545905484,-0.6481682894710069,0.15892151579821945
377,-2.7093614961347803,-0.6486194279039884,0.15884043505171414
378,-2.7105829718658163,-0.6490691983954816,0.1587596479308785
379,-2.7118009911393517,-0.6495176085441544,0.15867915262475155
380,-2.7130155718607347,-0.649964665887789,0.1585989473380106
381,-2.714226731801229,-0.6504103779039169,0.15851903029079792
382,-2.7154344885993247,-0.6508547520104451,0.15843939971855034
383,-2.7166388597620337,-0.6512977955662753,0.1583600538718308
384,-2.717839862666169,-0.6517395158719145,0.1582809910161623
385,-2.719037514559608,-0.6521799201700776,0.15820220943186397
386,-2.720231832562543,-0.6526190156462837,0.15812370741388931
387,-2.721422833668715,-0.6530568094294429,0.15804548327166668
388,-2.7226105347466323,-0.6534933085924375,0.15796753532894198
389,-2.723794952540776,-0.6539285201526946,0.15788986192362314
390,-2.72497610367279,-0.6543624510727526,0.15781246140762684
391,-2.7261540046426593,-0.6547951082608191,0.15773533214672736
392,-2.7273286718298704,-0.6552264985713238,0.15765847252040702
393,-2.728500121494561,-0.6556566288054624,0.15758188092170936
394,-2.729668369778657,-0.6560855057117356,0.15750555575709296
395,-2.730833432706991,-0.6565131359864803,0.1574294954462887
396,-2.7319953261884167,-0.6569395262743942,0.1573536984221576
397,-2.7331540660168994,-0.6573646831690546,0.15727816313055124
398,-2.734309667872602,-0.6577886132134302,0.15720288803017363
399,-2.735462147322957,-0.6582113229003868,0.15712787159244535
400,-2.7366115198237213,-0.6586328186731868,0.1570531123013686
401,-2.7377578007200247,-0.659053106925983,0.15697860865339486
402,-2.7389010052474037,-0.6594721940043051,0.15690435915729367
403,-2.740041148532822,-0.6598900862055421,0.15683036233402342
404,-2.7411782455956835,-0.660306789779417,0.1567566167166035
405,-2.7423123113488277,-0.6607223109284571,0.15668312084998853
406,-2.7434433605995188,-0.6611366558084579,0.1566098732909436
407,-2.744571408050422,-0.6615498305289418,0.15653687260792154
408,-2.745696468300568,-0.6619618411536105,0.15646411738094174
409,-2.746818555846305,-0.6623726937007932,0.1563916062014699
410,-2.747937685082246,-0.6627823941438884,0.15631933767230044
411,-2.749053870302196,-0.6631909484118007,0.15624731040743906
412,-2.7501671257000786,-0.6635983623893726,0.15617552303198787
413,-2.7512774653708436,-0.664004641917811,0.15610397418203129
414,-2.752384903311371,-0.664409792795108,0.15603266250452366
415,-2.7534894534213605,-0.6648138207764586,0.15596158665717824
416,-2.754591129504213,-0.6652167315746705,0.15589074530835734
417,-2.7556899452679025,-0.6656185308605723,0.1558201371369644
418,-2.756785914325836,-0.6660192242634142,0.1557497608323365
419,-2.7578790501977077,-0.6664188173712656,0.1556796150941392
420,-2.758969366310339,-0.6668173157314076,0.15560969863226187
421,-2.760056875998514,-0.6672147248507202,0.1555400101667147
422,-2.7611415925058016,-0.6676110501960666,0.15547054842752714
423,-2.7622235289853716,-0.6680062971946712,0.15540131215464698
424,-2.7633026985008,-0.6684004712344943,0.15533230009784132
425,-2.764379114026865,-0.6687935776646023,0.15526351101659822
426,-2.765452788450338,-0.6691856217955334,0.15519494368003
427,-2.7665237345707605,-0.669576608899659,0.15512659686677738
428,-2.7675919651012157,-0.6699665442115412,0.15505846936491496
429,-2.768657492669093,-0.6703554329282863,0.1549905599718578
430,-2.7697203298168396,-0.6707432802098935,0.1549228674942689
431,-2.7707804890027097,-0.6711300911796007,0.15485539074796825
432,-2.7718379826015003,-0.6715158709242253,0.15478812855784277
433,-2.772892822905283,-0.6719006244945018,0.15472107975775695
434,-2.773945022124125,-0.6722843569054154,0.15465424319046522
435,-2.7749945923868045,-0.6726670731365314,0.15458761770752483
436,-2.7760415457415166,-0.6730487781323214,0.15452120216921017
437,-2.777085894156574,-0.6734294768024859,0.15445499544442773
438,-2.778127649521098,-0.6738091740222724,0.15438899641063228
439,-2.779166823645701,-0.6741878746327907,0.15432320395374427
440,-2.780203428263168,-0.6745655834413249,0.15425761696806733
441,-2.781237475029122,-0.6749423052216407,0.15419223435620827
442,-2.7822689755226904,-0.6753180447142902,0.1541270550289962
443,-2.783297941247157,-0.6756928066269137,0.15406207790540422
444,-2.7843243836306137,-0.6760665956345364,0.1539973019124706
445,-2.785348314026603,-0.676439416379864,0.15393272598522253
446,-2.7863697437147503,-0.6768112734735734,0.1538683490665989
447,-2.7873886839013946,-0.6771821714946006,0.1538041701073754
448,-2.78840514572021,-0.6775521149904259,0.15374018806609002
449,-2.789419140232821,-0.6779211084773553,0.15367640190896914
450,-2.7904306784294115,-0.6782891564407993,0.15361281060985488
451,-2.791439771229328,-0.6786562633355484,0.1535494131501331
452,-2.792446429481675,-0.6790224335860451,0.1534862085186622
453,-2.7934506639659062,-0.6793876715866541,0.15342319571170288
454,-2.7944524853924086,-0.6797519817019289,0.15336037373284858
455,-2.7954519044030794,-0.6801153682668745,0.15329774159295678
456,-2.796448931571899,-0.6804778355872092,0.153235298310081
457,-2.797443577405498,-0.6808393879396224,0.15317304290940356
458,-2.7984358523437156,-0.6812000295720294,0.15311097442316962
459,-2.7994257667601556,-0.6815597647038241,0.15304909189062074
460,-2.8004133309627357,-0.6819185975261284,0.15298739435793088
461,-2.801398555194229,-0.6822765322020397,0.15292588087814138
462,-2.8023814496328043,-0.6826335728668746,0.15286455051109823
463,-2.8033620243925563,-0.6829897236284114,0.15280340232338896
464,-2.8043402895240335,-0.6833449885671284,0.15274243538828053
465,-2.80531625501476,-0.6836993717364411,0.15268164878565804
466,-2.8062899307897506,-0.6840528771629361,0.1526210416019646
467,-2.8072613267120237,-0.6844055088466023,0.1525606129301407
468,-2.808230452583105,-0.6847572707610609,0.15250036186956495
469,-2.8091973181435317,-0.6851081668537908,0.15244028752599595
470,-2.8101619330733434,-0.6854582010463542,0.1523803890115138
471,-2.8111243069925775,-0.6858073772346177,0.15232066544446296
472,-2.812084449461753,-0.6861556992889719,0.15226111594939548
473,-2.8130423699823517,-0.6865031710545492,0.15220173965701506
474,-2.8139980779972946,-0.6868497963514382,0.15214253570412123
475,-2.8149515828914136,-0.6871955789748968,0.15208350323355485
476,-2.815902893991918,-0.6875405226955628,0.15202464139414376
477,-2.816852020568858,-0.6878846312596616,0.15196594934064883
478,-2.81779897183558,-0.6882279083892131,0.1519074262337114
479,-2.8187437569491816,-0.6885703577822353,0.15184907123980013
480,-2.81968638501096,-0.6889119831129462,0.1517908835311598
481,-2.8206268650668553,-0.6892527880319639,0.15173286228575925
482,-2.8215652061078917,-0.6895927761665039,0.15167500668724093
483,-2.8225014170706126,-0.6899319511205753,0.15161731592487077
484,-2.8234355068375114,-0.6902703164751738,0.15155978919348806
485,-2.8243674842374586,-0.690607875788474,0.15150242569345654
486,-2.825297358046126,-0.6909446325960192,0.15144522463061585
487,-2.826225136986404,-0.6912805904109086,0.15138818521623304
488,-2.8271508297288177,-0.6916157527239836,0.15133130666695513
489,-2.828074444891936,-0.6919501230040116,0.1512745882047622
490,-2.8289959910427807,-0.6922837046978684,0.15121802905692042
491,-2.8299154766972268,-0.6926165012307179,0.15116162845593623
492,-2.830832910320403,-0.6929485160061912,0.1511053856395106
493,-2.8317483003270874,-0.6932797524065628,0.1510492998504939
494,-2.8326616550820964,-0.6936102137929254,0.15099337033684132
495,-2.833572982900675,-0.6939399035053634,0.1509375963515684
496,-2.8344822920488784,-0.6942688248631236,0.15088197715270785
497,-2.8353895907439544,-0.6945969811647854,0.15082651200326586
498,-2.8362948871547182,-0.6949243756884286,0.15077120017117912
499,-2.8371981894019265,-0.6952510116917993,0.1507160409292732
500,-2.8380995055586458,-0.6955768924124748,0.15066103355521995
501,-2.8389988436506197,-0.6959020210680266,0.15060617733149634
502,-2.839896211656631,-0.6962264008561814,0.15055147154534326
503,-2.840791617508859,-0.6965500349549811,0.15049691548872507
504,-2.8416850690932387,-0.696872926522941,0.15044250845828935
505,-2.8425765742498097,-0.6971950786992058,0.150388249755327
506,-2.843466140773067,-0.6975164946037055,0.15033413868573325
507,-2.844353776412306,-0.697837177337308,0.1502801745599681
508,-2.8452394888719663,-0.6981571299819719,0.15022635669301834
509,-2.8461232858119696,-0.6984763556008965,0.1501726844043591
510,-2.8470051748480563,-0.698794857238671,0.15011915701791598
511,-2.8478851635521183,-0.699112637921422,0.15006577386202816
512,-2.8487632594525296,-0.6994297006569595,0.1500125342694108
513,-2.8496394700344725,-0.699746048434922,0.14995943757711883
514,-2.8505138027402612,-0.7000616842269195,0.14990648312651061
515,-2.8513862649696637,-0.7003766109866754,0.14985367026321184
516,-2.8522568640802186,-0.7006908316501669,0.14980099833708044
517,-2.853125607387551,-0.7010043491357646,0.149748466702171
518,-2.853992502165683,-0.70131716634437,0.1496960747167005
519,-2.854857555647345,-0.7016292861595521,0.1496438217430131
520,-2.8557207750242797,-0.7019407114476826,0.14959170714754688
521,-2.856582167447548,-0.7022514450580695,0.14953973030079948
522,-2.8574417400278276,-0.7025614898230901,0.14948789057729492
523,-2.858299499835713,-0.7028708485583223,0.14943618735555064
524,-2.859155453902009,-0.7031795240626743,0.14938462001804453
525,-2.860009609218025,-0.7034875191185138,0.1493331879511825
526,-2.8608619727358633,-0.7037948364917956,0.14928189054526678
527,-2.861712551368708,-0.7041014789321878,0.14923072719446345
528,-2.862561351991108,-0.704407449173197,0.14917969729677183
529,-2.8634083814392617,-0.7047127499322926,0.14912880025399258
530,-2.8642536465112935,-0.7050173839110294,0.1490780354716972
531,-2.865097153967534,-0.7053213537951694,0.1490274023591976
532,-2.865938910530792,-0.705624662254802,0.14897690032951555
533,-2.866778922886629,-0.7059273119444641,0.14892652879935322
534,-2.867617197683627,-0.7062293055032577,0.14887628718906284
535,-2.868453741533657,-0.7065306455549674,0.1488261749226181
536,-2.869288561012143,-0.7068313347081764,0.1487761914275846
537,-2.870121662658326,-0.7071313755563817,0.14872633613509129
538,-2.870953052975523,-0.7074307706781078,0.1486766084798018
539,-2.8717827384313854,-0.7077295226370195,0.14862700789988648
540,-2.8726107254581543,-0.7080276339820339,0.14857753383699415
541,-2.873437020452914,-0.7083251072474313,0.14852818573622473
542,-2.8742616297778443,-0.7086219449529644,0.14847896304610156
543,-2.8750845597604675,-0.7089181496039678,0.14842986521854457
544,-2.875905816693897,-0.7092137236914653,0.14838089170884297
545,-2.87672540683708,-0.7095086696922766,0.1483320419756292
546,-2.877543336415042,-0.7098029900691232,0.14828331548085197
547,-2.878359611619125,-0.7100966872707333,0.1482347116897507
548,-2.879174238607228,-0.7103897637319454,0.1481862300708292
549,-2.8799872235040413,-0.7106822218738115,0.14813787009583043
550,-2.8807985724012815,-0.7109740641036987,0.14808963123971094
551,-2.8816082913579226,-0.7112652928153904,0.14804151298061582
552,-2.8824163864004277,-0.7115559103891865,0.14799351479985362
553,-2.8832228635229757,-0.7118459191920025,0.14794563618187206
554,-2.884027728687687,-0.7121353215774676,0.14789787661423345
555,-2.88483098782485,-0.7124241198860226,0.14785023558759028
556,-2.8856326468331397,-0.7127123164450158,0.14780271259566174
557,-2.886432711579841,-0.7129999135687991,0.14775530713520962
558,-2.8872311879010657,-0.7132869135588228,0.14770801870601485
559,-2.8880280816019694,-0.7135733187037293,0.14766084681085456
560,-2.888823398456966,-0.7138591312794463,0.1476137909554785
561,-2.8896171442099403,-0.7141443535492792,0.1475668506485866
562,-2.8904093245744593,-0.7144289877640023,0.14752002540180614
563,-2.891199945233981,-0.7147130361619496,0.14747331472966954
564,-2.891989011842063,-0.7149965009691046,0.14742671814959174
565,-2.8927765300225667,-0.7152793843991893,0.14738023518184876
566,-2.8935625053698617,-0.7155616886537522,0.14733386534955542
567,-2.894346943449028,-0.7158434159222564,0.147287608178644
568,-2.8951298497960565,-0.7161245683821655,0.14724146319784287
569,-2.8959112299180485,-0.7164051481990301,0.1471954299386549
570,-2.8966910892934115,-0.7166851575265725,0.1471495079353372
571,-2.8974694333720548,-0.7169645985067712,0.14710369672487966
572,-2.8982462675755842,-0.717243473269945,0.14705799584698453
573,-2.899021597297494,-0.7175217839348353,0.14701240484404618
574,-2.899795427903357,-0.7177995326086888,0.1469669232611305
575,-2.9005677647310133,-0.7180767213873385,0.14692155064595525
576,-2.901338613090759,-0.7183533523552849,0.14687628654886994
577,-2.9021079782655304,-0.7186294275857757,0.1468311305228361
578,-2.9028758655110893,-0.7189049491408857,0.14678608212340816
579,-2.9036422800562054,-0.7191799190715946,0.14674114090871362
580,-2.9044072271028374,-0.7194543394178661,0.14669630643943415
581,-2.9051707118263135,-0.7197282122087242,0.14665157827878664
582,-2.9059327393755083,-0.7200015394623304,0.14660695599250423
583,-2.9066933148730216,-0.7202743231860596,0.14656243914881803
584,-2.9074524434153513,-0.7205465653765754,0.14651802731843816
585,-2.9082101300730683,-0.7208182680199046,0.14647372007453577
586,-2.90896637989099,-0.7210894330915116,0.14642951699272486
587,-2.909721197888351,-0.7213600625563718,0.14638541765104413
588,-2.91047458905897,-0.7216301583690437,0.14634142162993963
589,-2.911226558371421,-0.7218997224737419,0.14629752851224653
590,-2.911977110769201,-0.7221687568044083,0.1462537378831718
591,-2.9127262511708922,-0.7224372632847829,0.1462100493302772
592,-2.9134739844703277,-0.7227052438284742,0.1461664624434618
593,-2.914220315536755,-0.7229727003390293,0.14612297681494485
594,-2.9149652492149976,-0.7232396347100022,0.14607959203924914
595,-2.915708790325613,-0.7235060488250233,0.14603630771318427
596,-2.9164509436650543,-0.7237719445578669,0.14599312343582982
597,-2.917191714005826,-0.7240373237725182,0.14595003880851926
598,-2.917931106096641,-0.724302188323241,0.1459070534348233
599,-2.918669124662576,-0.7245665400546434,0.145864166920534
600,-2.9194057744052255,-0.7248303808017436,0.14582137887364877
601,-2.920141060002852,-0.7250937123900351,0.14577868890435422
602,-2.9208749861105416,-0.7253565366355513,0.14573609662501083
603,-2.9216075573603497,-0.7256188553449299,0.1456936016501371
604,-2.9223387783614534,-0.7258806703154755,0.14565120359639422
605,-2.9230686537002977,-0.7261419833352237,0.14560890208257055
606,-2.9237971879407425,-0.7264027961830031,0.14556669672956687
607,-2.924524385624207,-0.7266631106284969,0.1455245871603808
608,-2.925250251269816,-0.7269229284323051,0.14548257300009232
609,-2.9259747893745414,-0.727182251346005,0.14544065387584876
610,-2.926698004413344,-0.7274410811122117,0.14539882941685012
611,-2.927419900839316,-0.727699419464638,0.14535709925433468
612,-2.9281404830838196,-0.727957268128154,0.14531546302156445
613,-2.9288597555566254,-0.7282146288188457,0.14527392035381095
614,-2.9295777226460507,-0.728471503244074,0.14523247088834126
615,-2.930294388719096,-0.7287278931025322,0.14519111426440331
616,-2.9310097581215797,-0.7289838000843039,0.14514985012321296
617,-2.931723835178273,-0.7292392258709197,0.14510867810793923
618,-2.9324366241930333,-0.7294941721354142,0.14506759786369133
619,-2.9331481294489357,-0.7297486405423818,0.1450266090375047
620,-2.933858355208405,-0.7300026327480321,0.14498571127832754
621,-2.934567305713346,-0.7302561504002458,0.14494490423700795
622,-2.935274985185272,-0.730509195138629,0.14490418756628004
623,-2.9359813978254334,-0.7307617685945677,0.14486356092075156
624,-2.936686547814945,-0.7310138723912812,0.1448230239568899
625,-2.9373904393149113,-0.7312655081438766,0.14478257633301045
626,-2.9380930764665534,-0.7315166774594005,0.14474221770926268
627,-2.9387944633913317,-0.7317673819368927,0.14470194774761827
628,-2.9394946041910703,-0.7320176231674376,0.14466176611185813
629,-2.9401935029480786,-0.7322674027342163,0.14462167246755997
630,-2.9408911637252726,-0.7325167222125579,0.1445816664820862
631,-2.941587590566297,-0.7327655831699904,0.14454174782457144
632,-2.942282787495642,-0.7330139871662912,0.14450191616591043
633,-2.9429767585187645,-0.7332619357535369,0.14446217117874602
634,-2.943669507622204,-0.7335094304761537,0.14442251253745716
635,-2.944361038773702,-0.733756472870966,0.14438293991814716
636,-2.9450513559223137,-0.7340030644672458,0.14434345299863188
637,-2.9457404629985273,-0.7342492067867611,0.14430405145842815
638,-2.946428363914376,-0.7344949013438237,0.14426473497874198
639,-2.9471150625635523,-0.7347401496453374,0.14422550324245736
640,-2.9478005628215187,-0.7349849531908454,0.14418635593412496
641,-2.9484848685456213,-0.735229313472577,0.14414729273995058
642,-2.9491679835752,-0.7354732319754945,0.14410831334778404
643,-2.9498499117316985,-0.7357167101773393,0.14406941744710838
644,-2.9505306568187724,-0.7359597495486779,0.1440306047290285
645,-2.9512102226223984,-0.7362023515529476,0.14399187488626056
646,-2.951888612910982,-0.7364445176465012,0.1439532276131209
647,-2.952565831435463,-0.7366862492786526,0.14391466260551558
648,-2.9532418819294235,-0.7369275478917204,0.14387617956092943
649,-2.9539167681091905,-0.7371684149210732,0.14383777817841592
650,-2.9545904936739418,-0.7374088517951721,0.1437994581585863
651,-2.955263062305809,-0.7376488599356151,0.14376121920359933
652,-2.95593447766998,-0.7378884407571799,0.14372306101715127
653,-2.9566047434148017,-0.7381275956678665,0.1436849833044653
654,-2.9572738631718805,-0.73836632606894,0.1436469857722815
655,-2.957941840556183,-0.7386046333549728,0.14360906812884697
656,-2.9586086791661357,-0.738842518913886,0.14357123008390563
657,-2.959274382583724,-0.7390799841269909,0.14353347134868855
658,-2.959938954374591,-0.7393170303690308,0.1434957916359039
659,-2.960602398088134,-0.7395536590082212,0.14345819065972762
660,-2.961264717257602,-0.7397898714062905,0.14342066813579313
661,-2.9619259154001916,-0.7400256689185202,0.1433832237811826
662,-2.9625859960171423,-0.740261052893785,0.1433458573144167
663,-2.963244962593832,-0.7404960246745922,0.14330856845544565
664,-2.9639028185998697,-0.7407305855971212,0.1432713569256397
665,-2.9645595674891894,-0.7409647369912625,0.1432342224477798
666,-2.965215212700143,-0.7411984801806563,0.14319716474604874
667,-2.9658697576555917,-0.7414318164827306,0.14316018354602142
668,-2.966523205762998,-0.7416647472087402,0.1431232785746565
669,-2.9671755604145167,-0.7418972736638038,0.143086449560287
670,-2.9678268249870823,-0.7421293971469416,0.14304969623261132
671,-2.968477002842501,-0.7423611189511131,0.1430130183226849
672,-2.969126097327539,-0.7425924403632536,0.14297641556291088
673,-2.9697741117740093,-0.7428233626643109,0.14293988768703175
674,-2.97042104949886,-0.7430538871292822,0.14290343443012066
675,-2.971066913804261,-0.7432840150272497,0.14286705552857284
676,-2.97171170797769,-0.7435137476214169,0.14283075072009693
677,-2.9723554352920174,-0.7437430861691439,0.142794519743707
678,-2.9729980990055926,-0.743972031921983,0.1427583623397138
679,-2.973639702362327,-0.7442005861257138,0.14272227824971653
680,-2.974280248591778,-0.744428750020378,0.14268626721659478
681,-2.974919740909233,-0.7446565248403136,0.1426503289845002
682,-2.97555818251579,-0.74488391181419,0.1426144632988483
683,-2.976195576598442,-0.7451109121650411,0.14257866990631085
684,-2.976831926330156,-0.7453375271103,0.1425429485548076
685,-2.977467234869955,-0.7455637578618319,0.14250729899349815
686,-2.978101505362998,-0.745789605625968,0.14247172097277436
687,-2.978734740940659,-0.7460150716035379,0.1424362142442529
688,-2.979366944720607,-0.7462401569899028,0.14240077856076674
689,-2.9799981198068837,-0.7464648629749882,0.14236541367635805
690,-2.980628269289982,-0.746689190743316,0.14233011934627043
691,-2.981257396246923,-0.7469131414740366,0.14229489532694134
692,-2.981885503741333,-0.747136716340961,0.14225974137599462
693,-2.9825125948235196,-0.7473599165125921,0.14222465725223302
694,-2.983138672530547,-0.7475827431521564,0.142189642715631
695,-2.983763739886313,-0.7478051974176351,0.14215469752732696
696,-2.984387799901621,-0.7480272804617947,0.1421198214496165
697,-2.9850108555742563,-0.7482489934322183,0.14208501424594494
698,-2.9856329098890595,-0.7484703374713357,0.14205027568090015
699,-2.9862539658179985,-0.7486913137164539,0.14201560552020534
700,-2.9868740263202422,-0.748911923299787,0.14198100353071244
701,-2.9874930943422324,-0.7491321673484858,0.1419464694803946
702,-2.9881111728177547,-0.7493520469846681,0.14191200313833957
703,-2.9887282646680107,-0.7495715633254476,0.14187760427474258
704,-2.9893443728016877,-0.7497907174829632,0.14184327266089974
705,-2.9899595001150296,-0.750009510564408,0.1418090080692011
706,-2.990573649491906,-0.750227943672058,0.14177481027312394
707,-2.9911868238038815,-0.7504460179033008,0.14174067904722606
708,-2.9917990259102845,-0.7506637343506639,0.1417066141671392
709,-2.9924102586582753,-0.7508810941018431,0.1416726154095625
710,-2.9930205248829145,-0.75109809823973,0.14163868255225565
711,-2.993629827407229,-0.7513147478424399,0.14160481537403286
712,-2.9942381690422795,-0.7515310439833398,0.14157101365475624
713,-2.9948455525872277,-0.7517469877310752,0.14153727717532918
714,-2.9954519808294005,-0.7519625801495976,0.14150360571769033
715,-2.996057456544357,-0.7521778222981915,0.14146999906480703
716,-2.996661982495952,-0.752392715231501,0.14143645700066942
717,-2.997265561436403,-0.7526072599995564,0.1414029793102838
718,-2.9978681961063516,-0.7528214576478007,0.1413695657796668
719,-2.9984698892349284,-0.753035309217116,0.1413362161958391
720,-2.9990706435398162,-0.7532488157438493,0.14130293034681957
721,-2.9996704617273138,-0.7534619782598383,0.1412697080216188
722,-3.000269346492396,-0.7536747977924373,0.1412365490102338
723,-3.0008673005187783,-0.7538872753645426,0.14120345310364127
724,-3.0014643264789767,-0.7540994119946177,0.14117042009379244
725,-3.0020604270343694,-0.7543112086967187,0.14113744977360676
726,-3.0026556048352573,-0.7545226664805191,0.14110454193696628
727,-3.003249862520925,-0.7547337863513345,0.14107169637870992
728,-3.0038432027197,-0.7549445693101472,0.1410389128946275
729,-3.0044356280490123,-0.755155016353631,0.14100619128145442
730,-3.0050271411154537,-0.7553651284741753,0.14097353133686583
731,-3.005617744514837,-0.7555749066599086,0.1409409328594709
732,-3.006207440832253,-0.7557843518947235,0.14090839564880758
733,-3.0067962326421305,-0.7559934651582998,0.14087591950533693
734,-3.0073841225082916,-0.7562022474261282,0.14084350423043743
735,-3.00797111298401,-0.7564106996695338,0.14081114962640007
736,-3.0085572066120685,-0.7566188228556993,0.14077885549642233
737,-3.0091424059248135,-0.7568266179476882,0.14074662164460336
738,-3.009726713444213,-0.7570340859044681,0.14071444787593831
739,-3.0103101316819116,-0.7572412276809326,0.1406823339963132
740,-3.0108926631392845,-0.7574480442279249,0.14065027981249972
741,-3.0114743103074946,-0.7576545364922598,0.14061828513214988
742,-3.0120550756675457,-0.757860705416746,0.14058634976379097
743,-3.0126349616903374,-0.7580665519402086,0.14055447351682032
744,-3.0132139708367176,-0.7582720769975108,0.14052265620150037
745,-3.0137921055575383,-0.7584772815195759,0.1404908976289535
746,-3.0143693682937065,-0.7586821664334095,0.14045919761115694
747,-3.0149457614762385,-0.75888673266212,0.1404275559609379
748,-3.0155212875263113,-0.7590909811249412,0.14039597249196867
749,-3.0160959488553156,-0.7592949127372529,0.14036444701876158
750,-3.0166697478649067,-0.7594985284106022,0.14033297935666417
751,-3.0172426869470574,-0.7597018290527244,0.1403015693218543
752,-3.017814768484107,-0.7599048155675644,0.14027021673133555
753,-3.018385994848814,-0.7601074888552967,0.140238921402932
754,-3.0189563684044045,-0.7603098498123463,0.1402076831552841
755,-3.0195258915046255,-0.7605118993314093,0.14017650180784338
756,-3.020094566493791,-0.760713638301473,0.14014537718086803
757,-3.0206623957068333,-0.7609150676078361,0.14011430909541853
758,-3.021229381469353,-0.7611161881321289,0.14008329737335246
759,-3.021795526097666,-0.7613170007523328,0.14005234183732032
760,-3.0223608318988524,-0.7615175063428005,0.14002144231076094
761,-3.022925301170806,-0.7617177057742754,0.1399905986178968
762,-3.023488936202281,-0.7619175999139113,0.13995981058372994
763,-3.02405173927294,-0.7621171896252914,0.1399290780340369
764,-3.0246137126534,-0.762316475768448,0.13989840079536478
765,-3.025174858605282,-0.7625154591998812,0.13986777869502673
766,-3.0257351793812552,-0.7627141407725783,0.13983721156109752
767,-3.026294677225085,-0.7629125213360324,0.13980669922240935
768,-3.0268533543716774,-0.763110601736261,0.13977624150854737
769,-3.0274112130471265,-0.763308382815825,0.13974583824984554
770,-3.0279682554687586,-0.763505865413847,0.13971548927738228
771,-3.028524483845179,-0.7637030503660296,0.13968519442297647
772,-3.0290799003763147,-0.7638999385046736,0.13965495351918308
773,-3.029634507253461,-0.7640965306586965,0.1396247663992891
774,-3.0301883066593254,-0.76429282765365,0.13959463289730925
775,-3.03074130076807,-0.7644888303117383,0.13956455284798225
776,-3.0312934917453576,-0.7646845394518357,0.13953452608676634
777,-3.031844881748394,-0.7648799558895041,0.13950455244983562
778,-3.032395472925971,-0.7650750804370109,0.1394746317740757
779,-3.0329452674185107,-0.7652699139033461,0.1394447638970799
780,-3.0334942673581065,-0.7654644570942399,0.13941494865714532
781,-3.034042474868566,-0.7656587108121797,0.13938518589326884
782,-3.034589892065455,-0.7658526758564271,0.1393554754451432
783,-3.0351365210561347,-0.7660463530230351,0.1393258171531532
784,-3.03568236393981,-0.766239743104865,0.13929621085837168
785,-3.0362274228075643,-0.7664328468916027,0.1392666564025561
786,-3.0367716997424052,-0.766625665169776,0.13923715362814423
787,-3.037315196819303,-0.7668181987227708,0.13920770237825073
788,-3.0378579161052324,-0.7670104483308473,0.1391783024966631
789,-3.0383998596592114,-0.7672024147711568,0.1391489538278385
790,-3.038941029532344,-0.7673940988177578,0.1391196562168995
791,-3.039481427767857,-0.7675855012416316,0.1390904095096306
792,-3.040021056401142,-0.7677766228106992,0.13906121355247453
793,-3.0405599174597926,-0.7679674642898365,0.13903206819252895
794,-3.0410980129636456,-0.7681580264408905,0.13900297327754244
795,-3.0416353449248184,-0.7683483100226945,0.13897392865591102
796,-3.0421719153477484,-0.7685383157910847,0.1389449341766749
797,-3.0427077262292306,-0.7687280444989143,0.1389159896895144
798,-3.0432427795584567,-0.7689174968960704,0.13888709504474714
799,-3.0437770773170523,-0.769106673729488,0.13885825009332406
800,-3.0443106214791142,-0.7692955757431663,0.13882945468682595
801,-3.0448434140112495,-0.769484203678183,0.13880070867746028
802,-3.045375456872611,-0.7696725582727098,0.13877201191805782
803,-3.0459067520149343,-0.7698606402620269,0.13874336426206885
804,-3.0464373013825767,-0.7700484503785385,0.13871476556356038
805,-3.0469671069125512,-0.7702359893517868,0.13868621567721215
806,-3.0474961705345636,-0.7704232579084672,0.13865771445831393
807,-3.0480244941710493,-0.7706102567724424,0.13862926176276186
808,-3.048552079737208,-0.7707969866647573,0.13860085744705522
809,-3.0490789291410403,-0.7709834483036527,0.1385725013682932
810,-3.0496050442833833,-0.7711696424045806,0.1385441933841717
811,-3.0501304270579443,-0.7713555696802176,0.13851593335298026
812,-3.050655079351338,-0.771541230840479,0.13848772113359845
813,-3.051179003043118,-0.7717266265925332,0.1384595565854932
814,-3.051702200005816,-0.7719117576408154,0.13843143956871523
815,-3.0522246721049724,-0.7720966246870414,0.13840336994389618
816,-3.052746421199171,-0.7722812284302216,0.1383753475722455
817,-3.053267449140075,-0.7724655695666742,0.1383473723155473
818,-3.0537877577724584,-0.7726496487900394,0.1383194440361571
819,-3.054307348934241,-0.7728334667912922,0.1382915625969991
820,-3.054826224456521,-0.7730170242587563,0.13826372786156302
821,-3.055344386163609,-0.7732003218781173,0.13823593969390108
822,-3.0558618358730594,-0.7733833603324359,0.138208197958625
823,-3.0563785753957045,-0.7735661403021612,0.13818050252090297
824,-3.0568946065356872,-0.7737486624651434,0.13815285324645693
825,-3.057409931090492,-0.7739309274966473,0.13812525000155945
826,-3.057924550850979,-0.7741129360693648,0.13809769265303085
827,-3.0584384676014134,-0.7742946888534281,0.1380701810682362
828,-3.0589516831194996,-0.774476186516422,0.13804271511508284
829,-3.059464199176412,-0.7746574297233972,0.13801529466201695
830,-3.0599760175368265,-0.7748384191368823,0.13798791957802117
831,-3.0604871399589504,-0.7750191554168967,0.13796058973261174
832,-3.060997568194556,-0.7751996392209628,0.13793330499583528
833,-3.061507303989009,-0.7753798712041186,0.1379060652382666
834,-3.0620163490813,-0.7755598520189299,0.1378788703310056
835,-3.0625247052040767,-0.7757395823155024,0.13785172014567443
836,-3.063032374083671,-0.7759190627414942,0.137824614554415
837,-3.0635393574401313,-0.7760982939421275,0.13779755342988614
838,-3.0640456569872523,-0.7762772765602005,0.1377705366452611
839,-3.064551274432604,-0.7764560112361,0.13774356407422444
840,-3.065056211477562,-0.7766344986078125,0.13771663559096983
841,-3.065560469817336,-0.7768127393109365,0.13768975107019718
842,-3.066064051141001,-0.7769907339786938,0.13766291038710993
843,-3.0665669571315237,-0.7771684832419414,0.13763611341741278
844,-3.0670691894657933,-0.7773459877291832,0.13760936003730875
845,-3.0675707498146494,-0.777523248066581,0.13758265012349677
846,-3.0680716398429113,-0.7777002648779666,0.13755598355316898
847,-3.068571861209406,-0.7778770387848525,0.13752936020400847
848,-3.069071415566996,-0.7780535704064435,0.13750277995418642
849,-3.069570304562608,-0.7782298603596481,0.1374762426823597
850,-3.070068529837261,-0.7784059092590895,0.13744974826766848
851,-3.070566093026093,-0.7785817177171164,0.13742329658973393
852,-3.0710629957583895,-0.7787572863438145,0.137396887528655
853,-3.0715592396576104,-0.7789326157470171,0.13737052096500674
854,-3.072054826341418,-0.7791077065323164,0.13734419677983772
855,-3.0725497574217036,-0.7792825593030738,0.13731791485466732
856,-3.073044034504614,-0.779457174660431,0.13729167507148346
857,-3.07353765919058,-0.7796315532033206,0.13726547731274036
858,-3.07403063307434,-0.7798056955284768,0.13723932146135598
859,-3.07452295774497,-0.7799796022304459,0.1372132074007098
860,-3.0750146347859073,-0.780153273901597,0.1371871350146403
861,-3.075505665774978,-0.780326711132132,0.13716110418744282
862,-3.075996052284423,-0.7804999145100966,0.13713511480386725
863,-3.0764857958809233,-0.7806728846213898,0.13710916674911533
864,-3.0769748981256257,-0.7808456220497753,0.13708325990883893
865,-3.0774633605741695,-0.7810181273768905,0.13705739416913756
866,-3.0779511847767105,-0.7811904011822574,0.13703156941655587
867,-3.078438372277948,-0.7813624440432925,0.13700578553808157
868,-3.078924924617147,-0.7815342565353168,0.1369800424211436
869,-3.0794108433281675,-0.7817058392315658,0.13695433995360912
870,-3.0798961299394856,-0.7818771927031992,0.13692867802378203
871,-3.08038078597422,-0.7820483175193111,0.13690305652040022
872,-3.0808648129501557,-0.7822192142469395,0.13687747533263392
873,-3.08134821237977,-0.7823898834510762,0.13685193435008308
874,-3.0818309857702553,-0.7825603256946762,0.1368264334627755
875,-3.082313134623544,-0.7827305415386677,0.13680097256116452
876,-3.0827946604363317,-0.7829005315419616,0.13677555153612714
877,-3.0832755647001027,-0.7830702962614606,0.1367501702789615
878,-3.083755848901152,-0.7832398362520693,0.13672482868138525
879,-3.0842355145206106,-0.7834091520667028,0.13669952663553314
880,-3.0847145630344674,-0.7835782442562969,0.13667426403395505
881,-3.0851929959135935,-0.7837471133698166,0.136649040769614
882,-3.0856708146237652,-0.7839157599542661,0.1366238567358839
883,-3.0861480206256875,-0.7840841845546972,0.13659871182654776
884,-3.0866246153750163,-0.784252387714219,0.13657360593579548
885,-3.0871006003223815,-0.7844203699740069,0.136548538958222
886,-3.087575976913411,-0.7845881318733111,0.13652351078882513
887,-3.088050746588751,-0.7847556739494664,0.13649852132300377
888,-3.0885249107840904,-0.7849229967379006,0.13647357045655556
889,-3.088998470930182,-0.785090100772143,0.1364486580856754
890,-3.0894714284528657,-0.7852569865838345,0.13642378410695322
891,-3.0899437847730895,-0.7854236547027348,0.1363989484173721
892,-3.0904155413069323,-0.7855901056567322,0.1363741509143062
893,-3.090886699465625,-0.7857563399718518,0.13634939149551908
894,-3.091357260655574,-0.7859223581722644,0.13632467005916182
895,-3.0918272262783795,-0.7860881607802948,0.1362999865037707
896,-3.0922965977308605,-0.7862537483164304,0.1362753407282659
897,-3.092765376405074,-0.7864191212993296,0.13625073263194915
898,-3.0932335636883375,-0.7865842802458305,0.1362261621145021
899,-3.0937011609632488,-0.786749225670959,0.13620162907598465
900,-3.094168169607708,-0.7869139580879372,0.13617713341683257
901,-3.094634590994939,-0.7870784780081916,0.13615267503785627
902,-3.0951004264935085,-0.7872427859413617,0.13612825384023847
903,-3.095565677467348,-0.7874068823953074,0.13610386972553296
904,-3.096030345275774,-0.7875707678761181,0.13607952259566208
905,-3.0964944312735083,-0.7877344428881202,0.13605521235291587
906,-3.096957936810699,-0.7878979079338853,0.1360309388999492
907,-3.0974208632329394,-0.7880611635142378,0.13600670213978108
908,-3.09788321188129,-0.7882242101282639,0.13598250197579215
909,-3.098344984092296,-0.7883870482733184,0.135958338311723
910,-3.09880618119801,-0.7885496784450331,0.13593421105167314
911,-3.09926680452601,-0.7887121011373246,0.13591012010009845
912,-3.0997268553994193,-0.7888743168424018,0.13588606536180972
913,-3.1001863351369265,-0.7890363260507742,0.13586204674197133
914,-3.100645245052805,-0.7891981292512591,0.13583806414609884
915,-3.101103586456931,-0.7893597269309892,0.13581411748005806
916,-3.101561360654806,-0.7895211195754206,0.13579020665006294
917,-3.102018568947571,-0.7896823076683401,0.13576633156267398
918,-3.1024752126320307,-0.7898432916918728,0.1357424921247966
919,-3.1029312930006694,-0.7900040721264896,0.13571868824367944
920,-3.1033868113416703,-0.7901646494510145,0.1356949198269129
921,-3.103841768938935,-0.7903250241426322,0.13567118678242734
922,-3.1042961670721008,-0.7904851966768952,0.13564748901849152
923,-3.104750007016561,-0.7906451675277314,0.13562382644371113
924,-3.1052032900434816,-0.7908049371674513,0.13560019896702688
925,-3.105656017419822,-0.790964506066755,0.13557660649771316
926,-3.10610819040835,-0.7911238746947397,0.1355530489453766
927,-3.1065598102676626,-0.7912830435189067,0.13552952621995393
928,-3.1070108782522032,-0.7914420130051685,0.1355060382317112
929,-3.1074613956122787,-0.791600783617856,0.1354825848912416
930,-3.107911363594079,-0.7917593558197255,0.1354591661094642
931,-3.1083607834396934,-0.7919177300719653,0.1354357817976223
932,-3.108809656387129,-0.7920759068342035,0.1354124318672821
933,-3.1092579836703282,-0.792233886564514,0.13538911623033106
934,-3.1097057665191854,-0.7923916697194241,0.1353658347989763
935,-3.1101530061595657,-0.7925492567539211,0.13534258748574315
936,-3.110599703813321,-0.7927066481214587,0.13531937420347395
937,-3.111045860698308,-0.7928638442739647,0.1352961948653261
938,-3.1114914780284053,-0.7930208456618467,0.13527304938477086
939,-3.1119365570135296,-0.7931776527339995,0.13524993767559196
940,-3.112381098859653,-0.7933342659378116,0.135226859651884
941,-3.1128251047688207,-0.7934906857191716,0.13520381522805083
942,-3.1132685759391667,-0.7936469125224749,0.13518080431880455
943,-3.1137115135649314,-0.7938029467906305,0.13515782683916377
944,-3.1141539188364766,-0.7939587889650672,0.13513488270445226
945,-3.114595792940304,-0.7941144394857403,0.1351119718302976
946,-3.11503713705907,-0.794269898791138,0.13508909413262957
947,-3.1154779523716023,-0.7944251673182875,0.13506624952767904
948,-3.1159182400529177,-0.794580245502762,0.13504343793197637
949,-3.116358001274236,-0.7947351337786863,0.13502065926235002
950,-3.116797237202997,-0.7948898325787438,0.1349979134359255
951,-3.117235949002877,-0.7950443423341824,0.1349752003701234
952,-3.117674137833805,-0.7951986634748207,0.13495251998265873
953,-3.118111804851976,-0.7953527964290545,0.13492987219153893
954,-3.11854895120987,-0.7955067416238627,0.13490725691506306
955,-3.1189855780562654,-0.7956604994848135,0.1348846740718201
956,-3.1194216865362554,-0.7958140704360707,0.13486212358068767
957,-3.1198572777912634,-0.7959674549003993,0.13483960536083098
958,-3.1202923529590585,-0.7961206532991724,0.1348171193317012
959,-3.1207269131737707,-0.7962736660523762,0.13479466541303425
960,-3.121160959565906,-0.7964264935786165,0.13477224352484957
961,-3.121594493262362,-0.796579136295125,0.1347498535874488
962,-3.122027515386443,-0.7967315946177643,0.1347274955214144
963,-3.1224600270578735,-0.7968838689610348,0.13470516924760853
964,-3.122892029392816,-0.7970359597380796,0.13468287468717172
965,-3.123323523503883,-0.7971878673606911,0.1346606117615215
966,-3.1237545105001536,-0.7973395922393165,0.13463838039235124
967,-3.1241849914871875,-0.7974911347830632,0.13461618050162896
968,-3.1246149675670396,-0.7976424953997051,0.134594012011596
969,-3.125044439838275,-0.7977936744956882,0.1345718748447657
970,-3.125473409395983,-0.7979446724761358,0.13454976892392242
971,-3.125901877331791,-0.7980954897448546,0.13452769417212013
972,-3.126329844733881,-0.7982461267043403,0.1345056505126811
973,-3.1267573126870016,-0.7983965837557829,0.134483637869195
974,-3.127184282272482,-0.7985468612990726,0.13446165616551753
975,-3.1276107545682486,-0.798696959732805,0.13443970532576904
976,-3.1280367306488364,-0.7988468794542867,0.13441778527433382
977,-3.128462211585405,-0.7989966208595408,0.13439589593585824
978,-3.1288871984457507,-0.7991461843433125,0.13437403723525024
979,-3.129311692294322,-0.7992955702990742,0.13435220909767784
980,-3.1297356941922314,-0.7994447791190308,0.1343304114485679
981,-3.1301592051972715,-0.7995938111941256,0.1343086442136051
982,-3.1305822263639262,-0.7997426669140453,0.13428690731873097
983,-3.1310047587433867,-0.799891346667225,0.13426520069014225
984,-3.1314268033835626,-0.8000398508408539,0.13424352425429015
985,-3.131848361329097,-0.8001881798208805,0.13422187793787924
986,-3.1322694336213788,-0.8003363339920175,0.134200261667866
987,-3.132690021298557,-0.8004843137377473,0.13417867537145808
988,-3.1331101253955524,-0.800632119440327,0.13415711897611277
989,-3.1335297469440726,-0.8007797514807936,0.13413559240953637
990,-3.1339488869726235,-0.8009272102389691,0.13411409559968282
991,-3.1343675465065233,-0.8010744960934655,0.13409262847475248
992,-3.134785726567915,-0.80122160942169,0.13407119096319134
993,-3.13520342817578,-0.8013685505998499,0.1340497829936896
994,-3.1356206523459487,-0.8015153200029577,0.13402840449518108
995,-3.1360374000911166,-0.8016619180048359,0.13400705539684157
996,-3.136453672420854,-0.8018083449781221,0.1339857356280882
997,-3.1368694703416207,-0.8019546012942741,0.1339644451185782
998,-3.1372847948567775,-0.8021006873235742,0.13394318379820774
999,-3.1376996469665985,-0.8022466034351349,0.13392195159711126
